Language model created by QuickLM on Wed Dec 15 11:39:12 EST 2021
Copyright (c) 1996-2010 Carnegie Mellon University and Alexander I. Rudnicky

The model is in standard ARPA format, designed by Doug Paul while he was at MITRE.

The code that was used to produce this language model is available in Open Source.
Please visit http://www.speech.cs.cmu.edu/tools/ for more information

The (fixed) discount mass is 0.5. The backoffs are computed using the ratio method.
This model based on a corpus of 73 sentences and 75 words

\data\
ngram 1=75
ngram 2=146
ngram 3=73

\1-grams:
-0.7782 </s> -0.3010
-0.7782 <s> -0.2218
-2.6415 ABORT -0.2218
-2.6415 AFTERNOON -0.2218
-2.6415 ALARM -0.2218
-2.6415 ARABIC -0.2218
-2.6415 BOLLYHOOD -0.2218
-2.6415 CHANGE -0.2218
-2.6415 CHECK -0.2218
-2.6415 CHROME -0.2218
-2.6415 CLOSE -0.2218
-2.6415 CMD -0.2218
-2.6415 COMPUTER -0.2218
-2.6415 CONNECTION -0.2218
-2.6415 CONSOLE -0.2218
-2.6415 CURRENT -0.2218
-2.6415 DATE -0.2218
-2.6415 DAY -0.2218
-2.6415 DESKTOP -0.2218
-2.6415 DOCUMENT -0.2218
-2.6415 DOWNLOAD -0.2218
-2.6415 EDGE -0.2218
-2.6415 ENGLISH -0.2218
-2.6415 EVENING -0.2218
-2.6415 EVENT -0.2218
-2.6415 EXCEL -0.2218
-2.6415 EXIT -0.2218
-2.6415 FILE -0.2218
-2.6415 FIREFOX -0.2218
-2.6415 FOLDER -0.2218
-2.6415 GAME -0.2218
-2.6415 GOOGLE -0.2218
-2.6415 HELLO -0.2218
-2.6415 HI -0.2218
-2.6415 HINDI -0.2218
-2.6415 HOLLYWOOD -0.2218
-2.6415 INTERNET -0.2218
-2.6415 KOLLYHOOD -0.2218
-2.6415 LOCATION -0.2218
-2.6415 MAIL -0.2218
-2.6415 MICROSOFT -0.2218
-2.6415 MODE -0.2218
-2.6415 MORNING -0.2218
-2.6415 MOZILLA -0.2218
-2.6415 MUSIC -0.2218
-2.6415 NEPALI -0.2218
-2.6415 NET -0.2218
-2.6415 NIGHT -0.2218
-2.6415 NO -0.2218
-2.6415 NOTEPAD -0.2218
-2.6415 OK -0.2218
-2.6415 OPEN -0.2218
-2.6415 PAINT -0.2218
-2.6415 PAPER -0.2218
-2.6415 PAUSE -0.2218
-2.6415 PLAY -0.2218
-2.6415 POWERPOINT -0.2218
-2.6415 RESTART -0.2218
-2.6415 SCISSOR -0.2218
-2.6415 SHUTDOWN -0.2218
-2.6415 SLEEP -0.2218
-2.6415 SONG -0.2218
-2.6415 START -0.2218
-2.6415 STATUS -0.2218
-2.6415 STONE -0.2218
-2.6415 STORE -0.2218
-2.6415 TERMINAL -0.2218
-2.6415 TERMINATE -0.2218
-2.6415 TIME -0.2218
-2.6415 TODAY'S -0.2218
-2.6415 UPCOMING -0.2218
-2.6415 WEATHER -0.2218
-2.6415 WORD -0.2218
-2.6415 YES -0.2218
-2.6415 YOUTUBE -0.2218

\2-grams:
-2.1644 <s> ABORT 0.0000
-2.1644 <s> AFTERNOON 0.0000
-2.1644 <s> ALARM 0.0000
-2.1644 <s> ARABIC 0.0000
-2.1644 <s> BOLLYHOOD 0.0000
-2.1644 <s> CHANGE 0.0000
-2.1644 <s> CHECK 0.0000
-2.1644 <s> CHROME 0.0000
-2.1644 <s> CLOSE 0.0000
-2.1644 <s> CMD 0.0000
-2.1644 <s> COMPUTER 0.0000
-2.1644 <s> CONNECTION 0.0000
-2.1644 <s> CONSOLE 0.0000
-2.1644 <s> CURRENT 0.0000
-2.1644 <s> DATE 0.0000
-2.1644 <s> DAY 0.0000
-2.1644 <s> DESKTOP 0.0000
-2.1644 <s> DOCUMENT 0.0000
-2.1644 <s> DOWNLOAD 0.0000
-2.1644 <s> EDGE 0.0000
-2.1644 <s> ENGLISH 0.0000
-2.1644 <s> EVENING 0.0000
-2.1644 <s> EVENT 0.0000
-2.1644 <s> EXCEL 0.0000
-2.1644 <s> EXIT 0.0000
-2.1644 <s> FILE 0.0000
-2.1644 <s> FIREFOX 0.0000
-2.1644 <s> FOLDER 0.0000
-2.1644 <s> GAME 0.0000
-2.1644 <s> GOOGLE 0.0000
-2.1644 <s> HELLO 0.0000
-2.1644 <s> HI 0.0000
-2.1644 <s> HINDI 0.0000
-2.1644 <s> HOLLYWOOD 0.0000
-2.1644 <s> INTERNET 0.0000
-2.1644 <s> KOLLYHOOD 0.0000
-2.1644 <s> LOCATION 0.0000
-2.1644 <s> MAIL 0.0000
-2.1644 <s> MICROSOFT 0.0000
-2.1644 <s> MODE 0.0000
-2.1644 <s> MORNING 0.0000
-2.1644 <s> MOZILLA 0.0000
-2.1644 <s> MUSIC 0.0000
-2.1644 <s> NEPALI 0.0000
-2.1644 <s> NET 0.0000
-2.1644 <s> NIGHT 0.0000
-2.1644 <s> NO 0.0000
-2.1644 <s> NOTEPAD 0.0000
-2.1644 <s> OK 0.0000
-2.1644 <s> OPEN 0.0000
-2.1644 <s> PAINT 0.0000
-2.1644 <s> PAPER 0.0000
-2.1644 <s> PAUSE 0.0000
-2.1644 <s> PLAY 0.0000
-2.1644 <s> POWERPOINT 0.0000
-2.1644 <s> RESTART 0.0000
-2.1644 <s> SCISSOR 0.0000
-2.1644 <s> SHUTDOWN 0.0000
-2.1644 <s> SLEEP 0.0000
-2.1644 <s> SONG 0.0000
-2.1644 <s> START 0.0000
-2.1644 <s> STATUS 0.0000
-2.1644 <s> STONE 0.0000
-2.1644 <s> STORE 0.0000
-2.1644 <s> TERMINAL 0.0000
-2.1644 <s> TERMINATE 0.0000
-2.1644 <s> TIME 0.0000
-2.1644 <s> TODAY'S 0.0000
-2.1644 <s> UPCOMING 0.0000
-2.1644 <s> WEATHER 0.0000
-2.1644 <s> WORD 0.0000
-2.1644 <s> YES 0.0000
-2.1644 <s> YOUTUBE 0.0000
-0.3010 ABORT </s> -0.3010
-0.3010 AFTERNOON </s> -0.3010
-0.3010 ALARM </s> -0.3010
-0.3010 ARABIC </s> -0.3010
-0.3010 BOLLYHOOD </s> -0.3010
-0.3010 CHANGE </s> -0.3010
-0.3010 CHECK </s> -0.3010
-0.3010 CHROME </s> -0.3010
-0.3010 CLOSE </s> -0.3010
-0.3010 CMD </s> -0.3010
-0.3010 COMPUTER </s> -0.3010
-0.3010 CONNECTION </s> -0.3010
-0.3010 CONSOLE </s> -0.3010
-0.3010 CURRENT </s> -0.3010
-0.3010 DATE </s> -0.3010
-0.3010 DAY </s> -0.3010
-0.3010 DESKTOP </s> -0.3010
-0.3010 DOCUMENT </s> -0.3010
-0.3010 DOWNLOAD </s> -0.3010
-0.3010 EDGE </s> -0.3010
-0.3010 ENGLISH </s> -0.3010
-0.3010 EVENING </s> -0.3010
-0.3010 EVENT </s> -0.3010
-0.3010 EXCEL </s> -0.3010
-0.3010 EXIT </s> -0.3010
-0.3010 FILE </s> -0.3010
-0.3010 FIREFOX </s> -0.3010
-0.3010 FOLDER </s> -0.3010
-0.3010 GAME </s> -0.3010
-0.3010 GOOGLE </s> -0.3010
-0.3010 HELLO </s> -0.3010
-0.3010 HI </s> -0.3010
-0.3010 HINDI </s> -0.3010
-0.3010 HOLLYWOOD </s> -0.3010
-0.3010 INTERNET </s> -0.3010
-0.3010 KOLLYHOOD </s> -0.3010
-0.3010 LOCATION </s> -0.3010
-0.3010 MAIL </s> -0.3010
-0.3010 MICROSOFT </s> -0.3010
-0.3010 MODE </s> -0.3010
-0.3010 MORNING </s> -0.3010
-0.3010 MOZILLA </s> -0.3010
-0.3010 MUSIC </s> -0.3010
-0.3010 NEPALI </s> -0.3010
-0.3010 NET </s> -0.3010
-0.3010 NIGHT </s> -0.3010
-0.3010 NO </s> -0.3010
-0.3010 NOTEPAD </s> -0.3010
-0.3010 OK </s> -0.3010
-0.3010 OPEN </s> -0.3010
-0.3010 PAINT </s> -0.3010
-0.3010 PAPER </s> -0.3010
-0.3010 PAUSE </s> -0.3010
-0.3010 PLAY </s> -0.3010
-0.3010 POWERPOINT </s> -0.3010
-0.3010 RESTART </s> -0.3010
-0.3010 SCISSOR </s> -0.3010
-0.3010 SHUTDOWN </s> -0.3010
-0.3010 SLEEP </s> -0.3010
-0.3010 SONG </s> -0.3010
-0.3010 START </s> -0.3010
-0.3010 STATUS </s> -0.3010
-0.3010 STONE </s> -0.3010
-0.3010 STORE </s> -0.3010
-0.3010 TERMINAL </s> -0.3010
-0.3010 TERMINATE </s> -0.3010
-0.3010 TIME </s> -0.3010
-0.3010 TODAY'S </s> -0.3010
-0.3010 UPCOMING </s> -0.3010
-0.3010 WEATHER </s> -0.3010
-0.3010 WORD </s> -0.3010
-0.3010 YES </s> -0.3010
-0.3010 YOUTUBE </s> -0.3010

\3-grams:
-0.3010 <s> ABORT </s>
-0.3010 <s> AFTERNOON </s>
-0.3010 <s> ALARM </s>
-0.3010 <s> ARABIC </s>
-0.3010 <s> BOLLYHOOD </s>
-0.3010 <s> CHANGE </s>
-0.3010 <s> CHECK </s>
-0.3010 <s> CHROME </s>
-0.3010 <s> CLOSE </s>
-0.3010 <s> CMD </s>
-0.3010 <s> COMPUTER </s>
-0.3010 <s> CONNECTION </s>
-0.3010 <s> CONSOLE </s>
-0.3010 <s> CURRENT </s>
-0.3010 <s> DATE </s>
-0.3010 <s> DAY </s>
-0.3010 <s> DESKTOP </s>
-0.3010 <s> DOCUMENT </s>
-0.3010 <s> DOWNLOAD </s>
-0.3010 <s> EDGE </s>
-0.3010 <s> ENGLISH </s>
-0.3010 <s> EVENING </s>
-0.3010 <s> EVENT </s>
-0.3010 <s> EXCEL </s>
-0.3010 <s> EXIT </s>
-0.3010 <s> FILE </s>
-0.3010 <s> FIREFOX </s>
-0.3010 <s> FOLDER </s>
-0.3010 <s> GAME </s>
-0.3010 <s> GOOGLE </s>
-0.3010 <s> HELLO </s>
-0.3010 <s> HI </s>
-0.3010 <s> HINDI </s>
-0.3010 <s> HOLLYWOOD </s>
-0.3010 <s> INTERNET </s>
-0.3010 <s> KOLLYHOOD </s>
-0.3010 <s> LOCATION </s>
-0.3010 <s> MAIL </s>
-0.3010 <s> MICROSOFT </s>
-0.3010 <s> MODE </s>
-0.3010 <s> MORNING </s>
-0.3010 <s> MOZILLA </s>
-0.3010 <s> MUSIC </s>
-0.3010 <s> NEPALI </s>
-0.3010 <s> NET </s>
-0.3010 <s> NIGHT </s>
-0.3010 <s> NO </s>
-0.3010 <s> NOTEPAD </s>
-0.3010 <s> OK </s>
-0.3010 <s> OPEN </s>
-0.3010 <s> PAINT </s>
-0.3010 <s> PAPER </s>
-0.3010 <s> PAUSE </s>
-0.3010 <s> PLAY </s>
-0.3010 <s> POWERPOINT </s>
-0.3010 <s> RESTART </s>
-0.3010 <s> SCISSOR </s>
-0.3010 <s> SHUTDOWN </s>
-0.3010 <s> SLEEP </s>
-0.3010 <s> SONG </s>
-0.3010 <s> START </s>
-0.3010 <s> STATUS </s>
-0.3010 <s> STONE </s>
-0.3010 <s> STORE </s>
-0.3010 <s> TERMINAL </s>
-0.3010 <s> TERMINATE </s>
-0.3010 <s> TIME </s>
-0.3010 <s> TODAY'S </s>
-0.3010 <s> UPCOMING </s>
-0.3010 <s> WEATHER </s>
-0.3010 <s> WORD </s>
-0.3010 <s> YES </s>
-0.3010 <s> YOUTUBE </s>

\end\
